svm_type c_svc
kernel_type rbf
gamma 0.00048828125
nr_class 4
total_sv 215
rho -0.04929537698739677 0.017720871801859241 -0.045729559322550808 0.10352821432878646 0.080455137607791022 -0.070821345134977898
label 4 1 2 3
nr_sv 54 53 54 54
SV
4.7082348076001308 6.8724972717642618 2.4014143811724713 1:1423 2:30.903074 3:15.21695 4:24.603523 5:193.41105 6:531.88038 7:1208.819 8:1934.1105 9:0.5 11:0.59901056 
0 1.5833831588262322 0.62223841685662651 1:1407.1111 2:44.85147 3:29.036219 4:43.634848 5:199.19209 6:547.77825 7:1244.9506 8:1991.9209 9:0.57142857 10:0.14285714 11:0.7601243 
3.1586256271107152 1.5240155216375408 8 1:1573.7143 2:44.79067 3:46.137187 4:62.660993 5:218.93344 6:602.06696 7:1368.334 8:2189.3344 9:0.4 10:0.2 11:0.74705738 
1.3537556420752568 1.9102830536059041 4.2899125862380201 1:1633.1429 2:60.539075 3:39.727069 4:87.177979 5:220.87653 6:607.41046 7:1380.4783 8:2208.7653 9:1 10:0.6 11:1.5109063 
2.5881341787583154 0.71611572752357511 0.45217116879197661 1:1629.5 2:37.091104 3:25.612497 4:47.497368 5:229.78704 6:631.91435 7:1436.169 8:2297.8704 9:0.66666667 10:0.33333333 11:1.4576944 
3.3734148080709967 1.0912281019763859 1.008912547862105 1:1616.5714 2:60.301284 3:22.141364 4:69.994285 5:228.44434 6:628.22194 7:1427.7771 8:2284.4434 9:1 10:0.8 11:1.3065412 
2.7540302657461981 1.0120516515304423 0.92963492357974886 1:1864 2:78.208513 3:52.337367 4:130.91677 5:260.96762 6:717.66095 7:1631.0476 8:2609.6762 9:1 10:0.8 11:0.93664937 
0.9188037898992969 1.6368357491426808 0.92667292846434623 1:1940 2:102.51244 3:83.394644 4:166.40513 5:272.68545 6:749.88498 7:1704.284 8:2726.8545 9:1 10:0.66666667 11:1.0515472 
1.0693714746377576 1.0020487324099963 0.90673205475943985 1:1914 2:92.050711 3:56.947344 4:141.01064 5:266.83736 6:733.80275 7:1667.7335 8:2668.3736 9:1 10:1 11:1.0206049 
0.95060129742454202 1.0178396773120784 0.95427717672388435 1:1786.2857 2:211.08544 3:65.580485 4:112.98141 5:216.99534 6:596.73719 7:1356.2209 8:2169.9534 9:1 10:0.6 11:0.24905325 
0.95070119485640781 1.0176880341892884 0.95420949408955469 1:1922.6667 2:165.24191 3:45.110974 4:99.779757 5:235.34116 6:647.18819 7:1470.8823 8:2353.4116 9:1 10:0.5 11:0.76186371 
0.76983490644955055 3.5051253752889027 1.8280050791128082 1:1810 2:48.757905 3:36.11094 4:60.06663 5:250.20289 6:688.05795 7:1563.7681 8:2502.0289 9:0.75 10:0.25 11:1.0841884 
0.9854916685993006 0.78872745154997137 2.1434384732686613 1:1352.4444 2:83.21206 3:15.183235 4:39.59798 5:171.67355 6:472.10227 7:1072.9597 8:1716.7355 9:0.85714286 10:0.14285714 11:0.5845567 
4.7750298490495791 0.81118411803033652 4.0519040086954208 1:1351.1111 2:67.403337 3:21.849205 4:49.638695 5:179.19045 6:492.77374 7:1119.9403 8:1791.9045 9:0.85714286 10:0.42857143 11:0.9226731 
1.1702851592547066 0.84917958526889425 1.6110901517499199 1:1289.2 2:32.052457 3:13.56466 4:25.845696 5:185.55385 6:510.2731 7:1159.7116 8:1855.5385 9:0.25 10:0.125 11:0.79068527 
1.9461799502868129 0.74013173417445455 0.68352954995529458 1:1261.2 2:30.201987 3:20.487801 4:30.430248 5:179.72959 6:494.25638 7:1123.3099 8:1797.2959 9:0.375 10:0.125 11:0.51385236 
0 0.3079010602693904 0 1:1317.7778 2:61.220508 3:18.374783 4:34.936677 5:170.21316 6:468.08618 7:1063.8322 8:1702.1316 9:0.71428571 10:0.14285714 11:0.5105055 
1.2801920159395264 0.96061624205921681 0.91316394849392757 1:1212 2:35.145412 3:11.390786 4:26.11513 5:175.28124 6:482.02341 7:1095.5078 8:1752.8124 9:0.5 11:0.569632 
0.96024279939460477 1.0174481451541488 0.95444977353909022 1:2155.3333 2:113.82833 3:63.435006 4:108.48041 5:279.81367 6:769.48761 7:1748.8355 8:2798.1367 9:0.75 10:0.5 11:1.5933709 
0.9497969700965665 1.0172940306211797 0.95468650664652333 1:2099.3333 2:262.65736 3:36.71512 4:119.76644 5:238.54579 6:656.00091 7:1490.9112 8:2385.4579 9:1 10:1 11:1.5675394 
0.94998337685940226 1.0174225139589763 1.5320617341810676 1:2080 2:237.98039 3:88.334591 4:122.58874 5:247.30612 6:680.09182 7:1545.6632 8:2473.0612 9:0.75 10:0.5 11:1.5265404 
4.4317954695688275 0.57678045370114794 0 1:1477.5 2:24.73358 3:6.4291005 4:26.783079 5:202.69355 6:557.40727 7:1266.8347 8:2026.9355 9:0.5 11:0.24320067 
2.9160966375199653 2.8872991547015725 0.89707751042117567 1:1469.5 2:32.615181 3:10.241528 4:21.291626 5:208.46469 6:573.27791 7:1302.9043 8:2084.6469 9:0.5 11:0.31833778 
0.63752785248173993 0.69133393651657737 3.5093882184449821 1:1501 2:36.373067 3:12.995726 4:28.472209 5:201.96645 6:555.40774 7:1262.2903 8:2019.6645 9:0.5 11:0.24370578 
2.7000465218583618 0.47754577510898538 8 1:1357.7778 2:29.641479 3:20.587295 4:39.01648 5:187.6447 6:516.02292 7:1172.7794 8:1876.447 9:0.57142857 10:0.42857143 11:0.7007794 
8 2.6409153182144247 1.5868726727252396 1:1395.5 2:40.91149 3:16.559656 4:35.44009 5:195.91703 6:538.77183 7:1224.4814 8:1959.1703 9:0.66666667 10:0.16666667 11:0.57130767 
1.0420430910739953 0.026238726099284536 1.2140477505104503 1:1310.4 2:35.01771 3:15.968719 4:47.749346 5:182.4937 6:501.85768 7:1140.5856 8:1824.937 9:0.875 10:0.375 11:0.72611045 
0.95046403040707428 1.0290853315931534 0.95371470248298118 1:1769.1429 2:120.03265 3:55.159405 4:97.83251 5:223.75709 6:615.332 7:1398.4818 8:2237.5709 9:1 10:0.4 11:0.89830075 
0.83686213107997209 1.1845297862905637 1.3875147661159661 1:1765.3333 2:66.15806 3:31.921779 4:43.127717 5:255.03324 6:701.3414 7:1593.9577 8:2550.3324 9:0.25 10:0.25 11:1.047457 
1.1584744645338381 0.98037849096375995 0.97123881299242898 1:1781.7143 2:74.122898 3:39.759276 4:75.344542 5:260.55419 6:716.52402 7:1628.4637 8:2605.5419 9:1 10:0.4 11:1.1158945 
0.95132598930853329 1.0180515549509095 0.95427643014590713 1:1652 2:138.96762 3:58.817987 4:84.978429 5:200.42332 6:551.16412 7:1252.6457 8:2004.2332 9:0.66666667 10:0.5 11:1.3094056 
0.48224184647051271 2.5596366017628527 3.451466365389908 1:1765.3333 2:67.118469 3:50.517324 4:87.954534 5:245.75172 6:675.81722 7:1535.9482 8:2457.5172 9:0.75 10:0.75 11:1.5693471 
0.95116181240928821 1.0176385184766528 0.9546626004921468 1:1766.8571 2:234.49607 3:107.34319 4:166.44038 5:273.30474 6:751.58802 7:1708.1546 8:2733.0474 9:1 10:0.6 11:1.6011963 
0.95061500104824281 1.0173247619918662 0.95368905975916329 1:1672.5714 2:146.55555 3:54.810218 4:86.717934 5:259.77775 6:714.38881 7:1623.6109 8:2597.7775 9:0.8 10:0.4 11:0.23545875 
0.4932064714756369 0.59569749417342932 2.138738285058142 1:1792.5714 2:73.645594 3:37.981048 4:100.27163 5:248.33304 6:682.91586 7:1552.0815 8:2483.3304 9:1 10:1 11:0.32303175 
1.9501089222444576 1.0448733400713082 1.3301867460887644 1:1683.4286 2:67.525354 3:45.013776 4:80.219698 5:230.65235 6:634.29397 7:1441.5772 8:2306.5235 9:0.8 10:0.6 11:0.30124 
0.68412941868191202 1.3091892057307981 1.5208312275187597 1:1575.5 2:79.257492 3:50.859283 4:78.655366 5:231.5564 6:636.78011 7:1447.2275 8:2315.564 9:0.83333333 10:0.5 11:1.0176938 
0.9847368087756091 1.5865416317319043 1.1293275722145006 1:1459.5556 2:123.68339 3:49.815988 4:76.673706 5:176.37109 6:485.0205 7:1102.3193 8:1763.7109 9:0.85714286 10:0.42857143 11:0.7060062 
0.58980074675207816 1.2650600615064664 2.6362630031681933 1:1580.5714 2:67.626827 3:58.262853 4:111.61362 5:222.20344 6:611.05945 7:1388.7715 8:2222.0344 9:1 10:0.8 11:0.61740262 
0 0.62108813434228327 3.3726755923396263 1:1302.6667 2:34.666667 3:36.749566 4:53.899377 5:177.51448 6:488.16483 7:1109.4655 8:1775.1448 9:0.57142857 10:0.28571429 11:0.9192652 
1.3222781683133431 0.57747561990745588 4.3170338272506283 1:1330.6667 2:31.721006 3:32.945224 4:49.222527 5:182.40292 6:501.60804 7:1140.0183 8:1824.0292 9:0.42857143 10:0.42857143 11:0.8978713 
3.9284774832193219 0 6.0318687773702164 1:1292.4 2:34.150256 3:24.959968 4:41.376322 5:178.35421 6:490.47408 7:1114.7138 8:1783.5421 9:0.5 10:0.25 11:0.81503345 
1.0814721634545454 5.8701526578158951 2.1066484401553387 1:1429.3333 2:50.771821 3:20.60315 4:61.281552 5:194.27436 6:534.2545 7:1214.2148 8:1942.7436 9:1 10:0.57142857 11:0.699286 
8 0.53417584621337244 0 1:1408.5 2:29.42363 3:17.346149 4:30.155154 5:198.82648 6:546.77283 7:1242.6655 8:1988.2648 9:0.5 10:0.16666667 11:0.72241156 
6.2472078687373234 0.16701300028932178 0 1:1426.2222 2:30.469576 3:16.699016 4:47.062269 5:198.20849 6:545.07334 7:1238.803 8:1982.0849 9:1 10:0.28571429 11:0.7169141 
1.9798001217543406 0.64807319392210772 2.6934407672365093 1:1307.1111 2:43.23693 3:26.422007 4:46.98936 5:171.6185 6:471.95087 7:1072.6156 8:1716.185 9:0.71428571 10:0.28571429 11:1.075873 
1.0887990598640287 1.2278277925756282 1.3920291831777984 1:1368 2:72.541176 3:37.85256 4:54.657374 5:201.09673 6:553.01601 7:1256.8546 8:2010.9673 9:0.42857143 10:0.42857143 11:1.0043866 
3.2407998346052231 0.88137349092397199 8 1:1374 2:32.496154 3:23.513589 4:47.553479 5:190.38517 6:523.55922 7:1189.9073 8:1903.8517 9:0.83333333 10:0.16666667 11:0.99154167 
0.88249158504269243 1.7197378787376372 0.87464608002515498 1:1735.4286 2:85.668559 3:48.305693 4:119.77312 5:251.9629 6:692.89799 7:1574.7682 8:2519.629 9:1 10:0.8 11:0.28005687 
0.19364152672136159 6.4202910764680752 0 1:1758.6667 2:77.448191 3:51.575188 4:110.74295 5:245.11397 6:674.06342 7:1531.9623 8:2451.1397 9:1 10:0.75 11:0.303698 
0.82117525915982914 4.1437299587099394 0.6332788219180816 1:1716.5714 2:75.029246 3:53.246596 4:127.63699 5:244.42594 6:672.17134 7:1527.6621 8:2444.2594 9:1 10:1 11:0.28719925 
1.2800786736858836 1.0456109541891125 2.9083225779658863 1:1387.1111 2:151.63439 3:28.433955 4:41.541717 5:158.77938 6:436.64329 7:992.37111 8:1587.7938 9:0.42857143 10:0.14285714 11:0.2980259 
0.78716358659319929 1.2696354316607108 1.1123687998217195 1:1474 2:76.889531 3:26.093848 4:56.991227 5:191.19463 6:525.78522 7:1194.9664 8:1911.9463 9:0.83333333 10:0.5 11:0.27880322 
8 1.7795134514327764 1.2166503032071274 1:1495.5 2:35.745629 3:30.811253 4:47.384948 5:213.69634 6:587.66492 7:1335.6021 8:2136.9634 9:0.66666667 10:0.33333333 11:0.296334 
-3.0875939378253707 0 0 1:1474.5 2:31.364789 3:15.776213 4:36.878178 5:204.73137 6:563.01128 7:1279.5711 8:2047.3137 9:1 10:0.16666667 11:0.33590478 
-1.1508634544637208 1.0658182998596328 1.112305927710018 1:1420.8889 2:149.87732 3:13.594717 4:23.712564 5:163.12326 6:448.58896 7:1019.5204 8:1631.2326 9:0.28571429 11:0.6010487 
-1.2179853141620773 1.0695736610301925 1.2311356594619487 1:1429.3333 2:172.68597 3:9.5276183 4:20.618993 5:156.6267 6:430.72343 7:978.9169 8:1566.267 9:0.42857143 11:0.7577221 
-3.0359724418075946 1.66195976977828 7.1421153627697684 1:1563 2:50.66557 3:34.596082 4:61.90315 5:217.38335 6:597.80422 7:1358.646 8:2173.8335 9:0.66666667 10:0.5 11:0.70134567 
-1.0376060400923994 1.7085768848427767 1.1208355009942468 1:1582.8571 2:97.082334 3:34.816088 4:108.91465 5:208.32431 6:572.89186 7:1302.0269 8:2083.2431 9:1 10:1 11:0.63205212 
-5.0150335887065092 0.93497955587310921 0.92326151963623881 1:1639.5 2:46.192532 3:19.821425 4:68.273958 5:228.6059 6:628.66622 7:1428.7869 8:2286.059 9:1 10:0.83333333 11:0.44657233 
-1.6814465960265679 1.0071636210102581 0.96167515433739637 1:1885.3333 2:107.81878 3:27.910571 4:151.59156 5:262.27641 6:721.26013 7:1639.2276 8:2622.7641 9:1 10:1 11:1.0870657 
-1.6440060792724618 0.90152960973517093 0.82168794765015585 1:1896 2:69.205009 3:45.650849 4:100.91581 5:261.58645 6:719.36273 7:1634.9153 8:2615.8645 9:0.75 10:0.75 11:1.1562141 
-1.2642854320548911 0.90300806655860144 0.79377798357303075 1:1857.3333 2:67.751179 3:47.581509 4:103.57606 5:257.82667 6:709.02334 7:1611.4167 8:2578.2667 9:0.75 10:0.75 11:1.1453164 
-1.0489458866930825 1.1037800839427259 1.0804454526090383 1:2028 2:340.50942 3:52.649786 4:87.589954 5:348.91117 6:959.50572 7:2180.6948 8:3489.1117 9:1 10:0.5 11:1.0841899 
-0.57002164687372914 0.60961476758532707 4.5694261934897398 1:1749.7143 2:97.461662 3:54.763491 4:118.95545 5:237.52357 6:653.18981 7:1484.5223 8:2375.2357 9:1 10:0.8 11:1.0921945 
-1.5561030050389464 1.0644055504712442 0.87932584456891005 1:1815.3333 2:85.710106 3:60.885138 4:119.64949 5:259.64614 6:714.02689 7:1622.7884 8:2596.4614 9:1 10:0.75 11:1.0885009 
-2.644790514682211 0.64855967211899557 8 1:1335.1111 2:49.702324 3:17.482353 4:34.969374 5:185.66127 6:510.56849 7:1160.3829 8:1856.6127 9:0.57142857 10:0.14285714 11:1.192194 
-1.2281232996866551 0.71067470151797441 0.90798519498810959 1:1354.2222 2:97.818173 3:35.308552 4:74.096462 5:175.62202 6:482.96056 7:1097.6376 8:1756.2202 9:0.85714286 10:0.57142857 11:1.203297 
-4.9372550129426838 0.57076143505451282 3.5392127714169828 1:1290.6667 2:51.708585 3:14.613385 4:36.221541 5:179.35082 6:493.21476 7:1120.9426 8:1793.5082 9:0.71428571 10:0.14285714 11:1.147652 
-0 0.075922633130209458 2.0095392309780351 1:1494.5 2:47.071754 3:32.062439 4:49.719212 5:204.42711 6:562.17455 7:1277.6694 8:2044.2711 9:0.5 10:0.33333333 11:0.40079711 
-3.2165876972541598 0 3.3349205925000613 1:1390.6667 2:36.660606 3:9.319718 4:37.186787 5:192.40949 6:529.12609 7:1202.5593 8:1924.0949 9:1 10:0.14285714 11:0.5601761 
-5.3776098961761658 6.61476403347665 2.629076580061104 1:1407 2:27.982137 3:27.365834 4:44.691535 5:193.75298 6:532.8207 7:1210.9561 8:1937.5298 9:0.66666667 10:0.16666667 11:0.684392 
-1.0491919513870565 1.1036902474567467 1.0802926592853617 1:1901.3333 2:291.65886 3:55.461698 4:89.308454 5:209.67364 6:576.60252 7:1310.4603 8:2096.7364 9:1 10:0.5 11:1.7345914 
-1.0574501881415863 1.1035350418220964 1.0834201193059341 1:2078.6667 2:64.111015 3:53.178943 4:101.1138 5:282.57732 6:777.08763 7:1766.1082 8:2825.7732 9:0.75 10:0.75 11:1.98044 
-1.0487939060266545 1.1054609943852529 1.0802701268203616 1:2038.4 2:62.307624 3:34.305814 4:74.975552 5:272.36275 6:748.99756 7:1702.2672 8:2723.6275 9:1 10:0.66666667 11:1.903035 
-0 1.6023797966814008 0 1:1490.5 2:21.160104 3:14.90712 4:23.88863 5:205.48588 6:565.08616 7:1284.2867 8:2054.8588 9:0.5 11:0.28709978 
-0.81886309643756117 8 4.3911027306103207 1:1537 2:26.962938 3:19.652537 4:30.50683 5:210.36897 6:578.51467 7:1314.8061 8:2103.6897 9:0.33333333 10:0.16666667 11:0.28735233 
-2.1724226188585352 0.61925089818458656 0.63817615401546313 1:1495.5 2:18.701604 3:12.944325 4:24.385788 5:205.15133 6:564.16615 7:1282.1958 8:2051.5133 9:0.66666667 11:0.23714067 
-1.1598916405318453 0.99736523130946264 3.7103614884273783 1:1380.4444 2:62.721804 3:22.101805 4:58.612529 5:186.10989 6:511.8022 7:1163.1868 8:1861.0989 9:0.85714286 10:0.85714286 11:0.8145341 
-6.6977770758887196 0 0 1:1425.5 2:29.862183 3:8.326664 4:25.403412 5:197.35603 6:542.72908 7:1233.4752 8:1973.5603 9:0.66666667 11:1.1658056 
-0.42634825518935354 0 0 1:1389.3333 2:45.762673 3:22.871424 4:38.869746 5:194.10238 6:533.78154 7:1213.1399 8:1941.0238 9:0.42857143 10:0.28571429 11:1.357016 
-2.6970067002403995 0.8171523950135563 3.8760349357136423 1:1370.6667 2:14.605935 3:8.7411763 4:13.938641 5:188.24434 6:517.67195 7:1176.5272 8:1882.4434 9:0.14285714 11:0.813236 
-8 3.2519428560432107 0.28487281739536224 1:1403.5 2:31.140809 3:17.074998 4:31.664912 5:198.14422 6:544.8966 7:1238.4014 8:1981.4422 9:0.5 11:0.85353189 
-4.2936001456815021 0.36302351106849212 0.44656501617952621 1:1437.7778 2:32.556883 3:20.040775 4:32.60149 5:199.72654 6:549.24799 7:1248.2909 8:1997.2654 9:0.57142857 10:0.14285714 11:0.7440868 
-1.1561122694333033 2.9086187383815596 1.9425737532552045 1:1600 2:66.302338 3:35.826744 4:52.71306 5:236.42484 6:650.1683 7:1477.6552 8:2364.2484 9:0.5 10:0.33333333 11:1.3869589 
-1.0553096348343944 1.5038436085444158 6.7635859732734822 1:1515 2:172.85543 3:26.708301 4:56.686271 5:171.24592 6:470.92629 7:1070.287 8:1712.4592 9:0.83333333 10:0.33333333 11:1.1529997 
-0.64626330488529438 1.1945255765938361 0.82146491440448077 1:1526.5 2:42.517643 3:26.997942 4:46.072407 5:217.35352 6:597.72218 7:1358.4595 8:2173.5352 9:0.5 10:0.33333333 11:1.3523289 
-0 0.49724085178716071 0 1:1663.4286 2:62.497673 3:47.625203 4:90.368136 5:224.97435 6:618.67947 7:1406.0897 8:2249.7435 9:0.8 10:0.6 11:0.053536375 
-1.1685448843343891 1.9221699031477417 1.0680572373214081 1:1640 2:65.900358 3:43.036729 4:77.789459 5:224.8781 6:618.41477 7:1405.4881 8:2248.781 9:0.8 10:0.6 11:0.049559625 
-1.3742362450581771 1.2073076138084871 2.2370202530248924 1:1669.7143 2:65.791259 3:42.828028 4:72.420991 5:217.92756 6:599.30078 7:1362.0472 8:2179.2756 9:0.8 10:0.4 11:0.023101 
-1.1166279642342158 0.73833395784145928 1.2984501140640714 1:1386.2222 2:85.377303 3:31.089075 4:53.409469 5:175.3302 6:482.15805 7:1095.8138 8:1753.302 9:0.71428571 10:0.42857143 11:0.7260044 
-4.5822481892299924 0.87729098987296261 8 1:1362.6667 2:62.822501 3:22.999556 4:57.906328 5:180.74672 6:497.05348 7:1129.667 8:1807.4672 9:0.85714286 10:0.57142857 11:0.7746685 
-3.7610934796611826 5.3282099324671739 4.6691243445251409 1:1377.5 2:58.238733 3:27.776889 4:43.389707 5:195.87969 6:538.66915 7:1224.2481 8:1958.7969 9:0.66666667 10:0.16666667 11:0.83946367 
-0.69564142242862836 0.75851556404749387 0.48497517160420323 1:1232 2:30.51557 3:19.697716 4:31.048349 5:171.57763 6:471.83849 7:1072.3602 8:1715.7763 9:0.375 10:0.25 11:0.85708973 
-1.0103101739783236 0.36958940987898753 0.25071651317320909 1:1276.8 2:37.386629 3:25.29328 4:38.858718 5:169.67912 6:466.61757 7:1060.4945 8:1696.7912 9:0.5 10:0.125 11:0.91464055 
-0.82111692840514072 0.83572160320504929 1.2268775446002291 1:1463.5 2:46.880166 3:34.364064 4:55.305214 5:201.4938 6:554.10796 7:1259.3363 8:2014.938 9:0.66666667 10:0.33333333 11:0.665202 
-3.8617196008077377 0 0.46585797494624426 1:1509.5 2:46.473111 3:24.917642 4:54.674796 5:213.60493 6:587.41355 7:1335.0308 8:2136.0493 9:0.83333333 10:0.5 11:0.68630367 
-0.25290023537704454 1.794433552047767 0 1:1496.5 2:44.963874 3:40.949834 4:60.59703 5:209.18285 6:575.25283 7:1307.3928 8:2091.8285 9:0.5 10:0.33333333 11:0.66953056 
-0.76130098942682523 0.90372024757898695 0.92795325695956665 1:1266.8 2:50.471378 3:27.422618 4:67.793805 5:167.22351 6:459.86465 7:1045.1469 8:1672.2351 9:1 10:0.625 11:1.0207985 
-1.8007729273480075 0.64713632925152831 1.7782863144188261 1:1273.3333 2:36.024683 3:19.695643 4:39.045761 5:173.7865 6:477.91289 7:1086.1656 8:1737.865 9:0.57142857 10:0.28571429 11:0.9995179 
-1.427937753126121 0.69131814135489944 1.0501544471165767 1:1267.6 2:53.85759 3:27.055499 4:55.099909 5:179.29613 6:493.06436 7:1120.6008 8:1792.9613 9:0.75 10:0.375 11:1.0551508 
-1.0407306332774917 1.0921086355431369 1.0707539044597787 1:1678.8571 2:111.6262 3:37.812167 4:125.05359 5:209.58691 6:576.364 7:1309.9182 8:2095.8691 9:1 10:1 11:0.41210587 
-0.55472252236357689 0.6158535941583112 0 1:1744.5714 2:90.646656 3:63.91995 4:126.18716 5:237.20485 6:652.31335 7:1482.5303 8:2372.0485 9:1 10:0.6 11:0.34851612 
-1.3837640642074658 0.88573137666505797 1.5492727558725641 1:1665.1429 2:68.208564 3:61.188234 4:107.18209 5:228.64722 6:628.77986 7:1429.0451 8:2286.4722 9:0.8 10:0.6 11:0.29032375 
-1.1033671529707827 1.115536979561419 1.4020581455172307 1:1505.5 2:55.962041 3:29.992592 4:48.935331 5:197.05613 6:541.90436 7:1231.6008 8:1970.5613 9:0.66666667 10:0.33333333 11:0.15248078 
-5.3823536573126356 1.6600511694936995 0.57572669682374367 1:1481.5 2:41.662333 3:23.860707 4:44.870183 5:212.64816 6:584.78244 7:1329.051 8:2126.4816 9:0.66666667 10:0.33333333 11:0.22184644 
-1.0840828741076329 1.1210804666111787 1.0804610363474532 1:1374.2222 2:100.18846 3:30.814786 4:56.081573 5:207.5702 6:570.81804 7:1297.3137 8:2075.702 9:0.71428571 10:0.28571429 11:0.1749858 
-0.7785069986734261 -1.5375977192291388 0.97484824373205137 1:1564.5714 2:52.259947 3:27.828043 4:58.977962 5:207.45616 6:570.50443 7:1296.601 8:2074.5616 9:0.8 10:0.6 11:0.82123862 
-1.1699627055206014 -0.95359426677644754 1.8541666196905915 1:1564 2:43.220366 3:17.191729 4:40.496913 5:221.79233 6:609.92892 7:1386.2021 8:2217.9233 9:0.83333333 10:0.16666667 11:0.91763089 
-0.72587696377527999 -0.77339483030606804 0.57596786556446355 1:1660 2:49.129566 3:15.471264 4:39.91992 5:234.2158 6:644.09346 7:1463.8488 8:2342.158 9:0.8 10:0.2 11:0.98193712 
-0.64648358759958158 -0.7724686878795386 1.4068841654286763 1:1732 2:41.825032 3:33.226495 4:58.378078 5:242.06521 6:665.67933 7:1512.9076 8:2420.6521 9:0.75 10:0.5 11:0.703103 
-2.7231258500761748 -0.76965038813850928 1.123096314680823 1:1820.5714 2:36.37447 3:32.338213 4:47.799582 5:247.85431 6:681.59936 7:1549.0895 8:2478.5431 9:0.6 10:0.2 11:0.64994812 
-0.9517623315050987 -1.0572822361219618 0.98703295918607181 1:1559.5 2:195.46291 3:26.272081 4:69.799713 5:174.5604 6:480.0411 7:1091.0025 8:1745.604 9:0.83333333 10:0.66666667 11:0.482247 
-0.98236127579799293 -0.89678880271954109 0.95222408385295643 1:2034 2:108.0432 3:107.38249 4:164.79078 5:290.45015 6:798.7379 7:1815.3134 8:2904.5015 9:0.75 10:0.5 11:1.0033076 
-1.5164016708033432 -0.81530520707972098 0.84204084836450344 1:1954.6667 2:95.237714 3:69.419018 4:129.22848 5:273.67791 6:752.61424 7:1710.4869 8:2736.7791 9:1 10:0.5 11:1.0171726 
-1.0004428844033695 -0.94155833998324989 0.92927323517143101 1:1966.4 2:111.01279 3:15.434449 4:146.15061 5:261.97741 6:720.43788 7:1637.3588 8:2619.7741 9:1 10:1 11:1.055549 
-8 -0.53652364228347593 1.2230355174461294 1:1749.1429 2:74.732721 3:60.736809 4:107.58439 5:246.04021 6:676.61059 7:1537.7513 8:2460.4021 9:0.8 10:0.6 11:1.1621957 
-0.90111461517112135 -1.0815857206391151 0.94881248382009886 1:1807.3333 2:90.669118 3:69.397406 4:112.07141 5:254.90068 6:700.97688 7:1593.1293 8:2549.0068 9:0.75 10:0.5 11:1.1211524 
-0.9712602569134865 -0.88292152166011761 0.90453984648351315 1:1927.3333 2:39.894305 3:39.749214 4:70.313583 5:268.01456 6:737.04004 7:1675.091 8:2680.1456 9:0.75 10:0.5 11:1.5243614 
-1.3083779263122477 -0.81540498357500368 2.9868875136396049 1:1581.1429 2:80.048965 3:38.115614 4:92.243157 5:225.87262 6:621.14972 7:1411.7039 8:2258.7262 9:1 10:0.8 11:0.90479425 
-0.87115086644037221 -0.79457250494431175 0.79162752073280795 1:1702.8571 2:26.422007 3:12.289833 4:21.466253 5:230.2273 6:633.12508 7:1438.9206 8:2302.273 9:0.2 11:0.53409087 
-0.93925933725221333 -1.310337095589043 3.8652505158866926 1:1588.5 2:61.593425 3:35.433819 4:66.833126 5:212.39806 6:584.09467 7:1327.4879 8:2123.9806 9:1 10:0.5 11:0.92098556 
-0.45939147384907747 -0.25587466084893329 0.32585149061558533 1:1667.4286 2:26.136221 3:20.953281 4:30.093189 5:233.13137 6:641.11127 7:1457.0711 8:2331.3137 9:0.4 10:0.2 11:0.625397 
-0.96586844395827576 -0.88162060335532733 0.9176295330316625 1:1595.5 2:163.78568 3:17.397318 4:31.283649 5:185.38728 6:509.81503 7:1158.6705 8:1853.8728 9:0.5 10:0.16666667 11:0.58267022 
-1.5208980893780808 -1.210579595216241 1.8056860117351898 1:1485.5 2:147.22687 3:38.087618 4:67.724934 5:174.2056 6:479.0654 7:1088.785 8:1742.056 9:0.66666667 10:0.66666667 11:0.46266011 
-0.98202893354701748 -0.89599414639245856 0.92938167353172618 1:2273.6 2:40.839197 3:21.416505 4:75.117685 5:311.65208 6:857.04322 7:1947.8255 8:3116.5208 9:1 10:0.66666667 11:0.64763517 
-0.98234841407587314 -0.89651628749732515 0.92927656238651213 1:2324 2:101.54014 3:74.499814 4:181.34314 5:319.54413 6:878.74636 7:1997.1508 8:3195.4413 9:1 10:1 11:0.88792517 
-0.98193974402146567 -0.89602124909828573 0.92932496365001505 1:2424 2:85.837055 3:76 4:135.35139 5:330.40752 6:908.62068 7:2065.047 8:3304.0752 9:1 10:0.5 11:0.8310586 
-0 -0 1.7593487814397211 1:1523 2:12.60952 3:9.4516313 4:16.891813 5:209.32381 6:575.64048 7:1308.2738 8:2093.2381 9:0.16666667 11:0.11709444 
-0.98754605614842628 -1.501480152078158 0 1:1517 2:17.748239 3:11.469767 4:21.908902 5:207.26641 6:569.98262 7:1295.415 8:2072.6641 9:0.33333333 11:0.16838833 
-0 -8 1.7222930013537647 1:1519.5 2:29.287369 3:18.997076 4:29.574764 5:210.20908 6:578.07496 7:1313.8067 8:2102.0908 9:0.16666667 10:0.16666667 11:0.28969689 
-1.8294024232822623 -1.6338205468450946 0.2097137660225005 1:1409.7778 2:34.978653 3:18.498759 4:35.488429 5:202.55598 6:557.02896 7:1265.9749 8:2025.5598 9:0.57142857 10:0.14285714 11:1.0781463 
-2.2034375395649097 -0.56624733507922798 0 1:1446.5 2:31.745078 3:26.699979 4:37.735925 5:195.1898 6:536.77195 7:1219.9363 8:1951.898 9:0.5 10:0.16666667 11:1.1230949 
-0.57886124812499107 -0 0 1:1439.5 2:36.575265 3:23.935097 4:36.331804 5:192.81159 6:530.23188 7:1205.0725 8:1928.1159 9:0.33333333 10:0.16666667 11:1.1023539 
-0.71640776210823565 -0.52165937497681203 1.7822058386886335 1:1752.5714 2:48.729156 3:37.981048 4:68.328618 5:249.18256 6:685.25205 7:1557.391 8:2491.8256 9:0.6 10:0.6 11:0.96497525 
-2.3146352356308739 -0.48499616216365665 0.97819831761994025 1:1775.4286 2:59.423077 3:42.588261 4:82.965053 5:251.40907 6:691.37495 7:1571.3067 8:2514.0907 9:0.8 10:0.6 11:1.0067731 
-1.2646072447624537 -0.80024548177680777 1.2072135067617384 1:1650.2857 2:102.5583 3:56.647683 4:103.98461 5:220.98201 6:607.70053 7:1381.1376 8:2209.8201 9:1 10:0.6 11:0.72684837 
-1.0431463493279214 -0.89119117701136197 0.92146665738277 1:1680 2:127.10401 3:84.527865 4:150.73155 5:248.78524 6:684.1594 7:1554.9077 8:2487.8524 9:1 10:1 11:1.3260188 
-0.99283305687121748 -0.8960464078525614 0.9291478911215405 1:1854.2857 2:163.62825 3:46.137187 4:90.279566 5:224.7968 6:618.1912 7:1404.98 8:2247.968 9:1 10:0.6 11:1.3668024 
-0.94243463276082851 -0.8614756268118654 0.89252243770914896 1:1573 2:144.79986 3:40.55723 4:90.288427 5:190.22239 6:523.11158 7:1188.89 8:1902.2239 9:0.83333333 10:0.66666667 11:1.0466237 
-0.980066392424084 -0.94403286480617998 0.90592875960226371 1:1857.1429 2:47.169689 3:33.808875 4:51.162486 5:264.21019 6:726.57802 7:1651.3137 8:2642.1019 9:0.6 10:0.2 11:0.44091812 
-1.2288566978036972 -0.45809571957911788 1.9822710985929128 1:1856.6667 2:44.86523 3:37.255872 4:75.789181 5:251.88799 6:692.69197 7:1574.2999 8:2518.8799 9:0.75 10:0.75 11:0.44232086 
-0.55891165536845133 -0.77559200247882687 0.67760535401531696 1:1862.6667 2:36.854067 3:34.568772 4:59.966657 5:254.78497 6:700.65866 7:1592.406 8:2547.8497 9:0.5 10:0.5 11:0.469962 
-3.9652852587687941 -0.59005282789259061 0.4742315765193747 1:1727.4286 2:75.937676 3:44.8 4:104.49115 5:243.2781 6:669.01478 7:1520.4881 8:2432.781 9:1 10:0.6 11:0.76239687 
-0.97932670086065554 -1.3856056823255294 0.92277410863495524 1:1569.5 2:129.92209 3:62.599255 4:130.0564 5:207.64178 6:571.01491 7:1297.7612 8:2076.4178 9:1 10:0.66666667 11:0.81046167 
-0.71518129596206959 -1.376833676361541 0.59885128448124192 1:1666.8571 2:87.314585 3:73.608695 4:109.89449 5:224.21333 6:616.58667 7:1401.3333 8:2242.1333 9:0.8 10:0.4 11:0.96525863 
-8 -3.9963261064900539 3.8753463147242897 1:1430 2:39.698866 3:20.396078 4:37.947332 5:193.30221 6:531.58108 7:1208.1388 8:1933.0221 9:0.66666667 10:0.33333333 11:0.60142744 
-2.6759382936511322 -5.3826404405769006 5.7742783918934171 1:1372 2:38.320288 3:25.606122 4:38.366652 5:197.15164 6:542.167 7:1232.1977 8:1971.5164 9:0.42857143 10:0.28571429 11:0.815671 
-3.5856859406386619 -5.500909130093703 1.0705111763302688 1:1398.6667 2:36.998498 3:31.774717 4:62.901283 5:195.16612 6:536.70683 7:1219.7883 8:1951.6612 9:0.71428571 10:0.57142857 11:0.8881641 
-1.3691746079001896 -1.9732903778091591 2.9070211111405544 1:1529.5 2:67.85094 3:35.207322 4:73.629704 5:218.76113 6:601.5931 7:1367.257 8:2187.6113 9:0.83333333 10:0.66666667 11:0.68233589 
-1.802650806815798 -1.9302764075764867 2.2430242805301286 1:1620 2:48.379453 3:23.542302 4:81.09254 5:223.75976 6:615.33934 7:1398.4985 8:2237.5976 9:1 10:1 11:0.47735925 
-1.3332746398984454 -2.7231405146821159 4.0960866157319176 1:1602 2:76.262704 3:31.276544 4:74.242845 5:234.94145 6:646.08899 7:1468.3841 8:2349.4145 9:0.83333333 10:0.66666667 11:0.60341144 
-0.75101928450169042 -0.90275333811492897 0.89519542910946914 1:1427 2:74.316889 3:21.989897 4:84.253585 5:185.0118 6:508.78245 7:1156.3238 8:1850.118 9:1 10:1 11:0.73665989 
-0.82691383515011985 -0.73321492429287194 0.70599396869444986 1:1424.8889 2:98.28354 3:23.685008 4:74.710871 5:181.6172 6:499.4473 7:1135.1075 8:1816.172 9:1 10:0.85714286 11:0.8191447 
-1.0110261300074141 -0.90019018381782911 1.123214097563918 1:1368.8889 2:167.82825 3:46.885009 4:90.761855 5:153.57083 6:422.31978 7:959.81769 8:1535.7083 9:0.85714286 10:0.71428571 11:0.7481125 
-0.98251720171701418 -0.93257876355833214 0.93288852637111719 1:1786.8571 2:119.99456 3:98.240521 4:180.98398 5:237.28134 6:652.52367 7:1483.0083 8:2372.8134 9:1 10:0.8 11:0.17848412 
-0.96000584956944535 -0.81419046123234873 0.84421174911687946 1:1898 2:86.617935 3:58.472216 4:143.45731 5:276.39623 6:760.08963 7:1727.4764 8:2763.9623 9:1 10:0.75 11:0.27044514 
-1.0509801640996876 -0.85228275112861418 0.88323841633734501 1:1757.3333 2:94.450457 3:79.624117 4:173.36666 5:254.68699 6:700.38923 7:1591.7937 8:2546.8699 9:1 10:0.75 11:0.22262971 
-1.0625505271765214 -0.87528136347017882 0.94101871646055468 1:1493 2:120.26221 3:68.494931 4:89.323383 5:190.30565 6:523.34054 7:1189.4103 8:1903.0565 9:0.66666667 10:0.33333333 11:0.086938667 
-0.19765668039060391 -0.10318926957610686 0.7672377676980634 1:1412.5 2:47.89311 3:17.587875 4:36.514837 5:204.39724 6:562.09241 7:1277.4827 8:2043.9724 9:0.66666667 10:0.33333333 11:0.18938211 
-2.9239396867071048 -0 0.094097404438883148 1:1490 2:31.176915 3:10.832051 4:22.744963 5:210.54342 6:578.9944 7:1315.8964 8:2105.4342 9:0.5 11:0.30243033 
-0.64115393859406045 -0.20603617266186691 -0.82589109975428576 1:1436.4444 2:67.946239 3:51.173973 4:71.346238 5:190.15083 6:522.91478 7:1188.4427 8:1901.5083 9:0.57142857 10:0.42857143 11:0.0100342 
-1.1900013273776915 -0.85091979354662706 -0.97142279497282802 1:1406.2222 2:164.54772 3:39.366411 4:65.220505 5:156.68647 6:430.8878 7:979.29045 8:1566.8647 9:0.71428571 10:0.42857143 11:-0.0025296 
-3.5864086810813589 -2.7364667022523528 -0.6437593321393229 1:1506.5 2:44.042593 3:24.376674 4:49.719212 5:201.94713 6:555.35459 7:1262.1695 8:2019.4713 9:0.66666667 10:0.66666667 11:0.073267667 
-2.1441436876394881 -0 -0 1:1592.5 2:61.593425 3:53.586897 4:82.961839 5:219.65675 6:604.05606 7:1372.8547 8:2196.5675 9:0.5 10:0.5 11:0.30748044 
-0.92733212029760703 -0.63623500937923261 -1.1415512191455404 1:1445.5 2:132.48302 3:27.968236 4:54.405882 5:170.84643 6:469.82768 7:1067.7902 8:1708.4643 9:1 10:0.33333333 11:0.21661611 
-1.023143532317615 -0.58006323108631719 -1.8143552913355756 1:1556 2:60.06663 3:42.042307 4:89.784928 5:225.9421 6:621.34079 7:1412.1382 8:2259.421 9:1 10:0.83333333 11:0.34661778 
-1.076143204055571 -0.17956985259080388 -0.80889078035029305 1:1619.4286 2:90.848158 3:31.33305 4:77.789459 5:219.9954 6:604.98734 7:1374.9712 8:2199.954 9:1 10:0.8 11:0.005204875 
-0.047382471560327169 -0.44216016190549429 -1.3349020270524166 1:1567 2:63.142696 3:32.166235 4:61.144637 5:224.60044 6:617.6512 7:1403.7527 8:2246.0044 9:0.66666667 10:0.5 11:0.0055973333 
-1.04340806793353 -0.92086632640048982 -1.0723655958720362 1:1678.2857 2:148.4373 3:84.641361 4:180.30197 5:227.89644 6:626.71521 7:1424.3527 8:2278.9644 9:0.8 10:0.8 11:-0.0036415 
-1.5800036982110899 -1.7005545181995132 -1.1081567855638417 1:1646.2857 2:97.695905 3:50.253756 4:89.120144 5:229.49081 6:631.09972 7:1434.3175 8:2294.9081 9:0.8 10:0.8 11:0.43020463 
-2.2607805881250873 -1.8228949752480836 -0.8339477044536161 1:1640.5714 2:70.79721 3:45.184068 4:85.003529 5:218.68197 6:601.37541 7:1366.7623 8:2186.8197 9:0.8 10:0.4 11:0.29060763 
-0.74263829192591968 -1.6795447140623554 -3.3807669259808377 1:1566 2:44.855323 3:36.178569 4:63.895748 5:212.13215 6:583.3634 7:1325.8259 8:2121.3215 9:0.83333333 10:0.5 11:0.57361622 
-4.1794187344529776 -1.9367928963909449 -0.42190481806803504 1:1346.6667 2:39.732438 3:31.47529 4:53.17357 5:187.35957 6:515.23883 7:1170.9973 8:1873.5957 9:0.71428571 10:0.42857143 11:0.0800274 
-2.9702834760030403 -4.5688277842180716 -0.43776949105441942 1:1347.1111 2:27.114754 3:11.255837 4:23.952334 5:185.61671 6:510.44596 7:1160.1044 8:1856.1671 9:0.42857143 11:0.0319801 
-4.0299420502635002 -2.9248712984729797 -0.36987850724793714 1:1326.6667 2:46.033804 3:23.588306 4:47.425129 5:183.82319 6:505.51376 7:1148.8949 8:1838.2319 9:0.71428571 10:0.42857143 11:0.0457774 
-0 -0.83106286288214148 -1.504253566320281 1:1605.1429 2:46.437142 3:31.148676 4:72.619557 5:215.20884 6:591.8243 7:1345.0552 8:2152.0884 9:0.8 10:0.8 11:0.137538 
-4.4593681624687864 -1.9391907377887916 -0 1:1589 2:42.790186 3:45.864535 4:72.90176 5:217.98797 6:599.46692 7:1362.4248 8:2179.8797 9:0.5 10:0.5 11:0.0086635556 
-0.87937872922402016 -6.5972665534682644 -1.4011376013898793 1:1506 2:168.8905 3:26.973238 4:42.363506 5:171.60559 6:471.91538 7:1072.535 8:1716.0559 9:0.33333333 10:0.16666667 11:0.060354 
-1.0459086692241952 -0.91955148117314345 -1.0703756738191954 1:2204.8 2:170.91565 3:34.305814 4:61.188234 5:271.38287 6:746.30289 7:1696.1429 8:2713.8287 9:0.66666667 10:0.66666667 11:-0.0016528333 
-1.0459579635923333 -0.92347629915724616 -1.0912427657132742 1:2109.3333 2:102.31107 3:66.715815 4:145.23085 5:289.52894 6:796.20458 7:1809.5559 8:2895.2894 9:1 10:0.75 11:0.057525 
-1.6002783225586763 -0.9194854835557148 -1.0708592264511112 1:2105.3333 2:225.57384 3:52.990565 4:123.90319 5:247.80182 6:681.45499 7:1548.7613 8:2478.0182 9:1 10:1 11:0.060678429 
-1.01882551834989 -0.48606922734986724 -1.3208715772213127 1:1484 2:134.04477 3:11.234866 4:27.712813 5:175.69583 6:483.16354 7:1098.0989 8:1756.9583 9:0.5 11:0.0067877778 
-1.0693361054717696 -2.2501651210627425 -3.116402186348461 1:1533 2:11.445523 3:8.326664 4:18.036999 5:211.54947 6:581.76103 7:1322.1842 8:2115.4947 9:0.5 11:0.089968667 
-0.16482538106883959 -2.245645072361119 -0 1:1550 2:22.978251 3:13.984118 4:20.264912 5:211.81862 6:582.50119 7:1323.8663 8:2118.1862 9:0.33333333 11:0.035645 
-1.0453601373868469 -0.91914532128500992 -1.0699394855558362 1:1098.5455 2:17.248787 3:11.383332 4:19.275776 5:149.90338 6:412.2343 7:936.89615 8:1499.0338 9:0.22222222 11:0.31265658 
-1.0106694124122257 -0.88906509700982117 -1.0350384092655409 1:1173.0909 2:19.378782 3:12.284689 4:16.865481 5:160.90143 6:442.47893 7:1005.6339 8:1609.0143 9:0.22222222 11:0.36549225 
-1.010196094632916 -0.88806557901354832 -1.0345204204668392 1:1203.2 2:50.049575 3:12.072696 4:22.93469 5:155.07451 6:426.45489 7:969.21567 8:1550.7451 9:0.375 11:0.37998091 
-1.3595057017011836 -1.6879094779534878 -3.8953270074006885 1:1603 2:91.689694 3:43.51245 4:61.881607 5:234.29002 6:644.29757 7:1464.3126 8:2342.9002 9:0.5 10:0.33333333 11:0.40700167 
-2.7794512550588584 -0.40481831890029119 -2.4606578080278085 1:1591.4286 2:52.782186 3:32.653331 4:84.190261 5:222.84232 6:612.81638 7:1392.7645 8:2228.4232 9:1 10:1 11:0.3600815 
-0 -0.2750812354041976 -0.617408087343426 1:1512 2:64.992307 3:18.714225 4:57.781196 5:202.06943 6:555.69094 7:1262.934 8:2020.6943 9:1 10:0.66666667 11:0.28273533 
-1.8042571161605352 -0.93587988576976389 -1.5932674755087572 1:1801.7143 2:42.432179 3:33.695104 4:64.671477 5:255.13125 6:701.61094 7:1594.5703 8:2551.3125 9:0.8 10:0.6 11:1.184555 
-1.2232269955103152 -0.92655006156704633 -2.3705910978793345 1:1866.6667 2:73.16344 3:52.038447 4:77.923039 5:251.5865 6:691.86289 7:1572.4157 8:2515.865 9:0.5 10:0.5 11:1.2508257 
-1.0594378312377635 -4.4716525091546853 -1.1219075524075175 1:1736 2:96.388104 3:43.943145 4:104.67091 5:237.54989 6:653.26219 7:1484.6868 8:2375.4989 9:1 10:0.75 11:1.2012929 
-1.0455615431913243 -0.91950479056717926 -1.0739100894871547 1:1661.1429 2:233.52909 3:30.18874 4:60.821049 5:182.23453 6:501.14496 7:1138.9658 8:1822.3453 9:0.8 10:0.6 11:0.33719488 
-1.0376171080245686 -0.85423095933867865 -1.4682139491200894 1:1773.7143 2:49.44756 3:16.666133 4:51.567432 5:241.37426 6:663.77923 7:1508.5892 8:2413.7426 9:0.8 10:0.6 11:0.261755 
-5.0124435763454436 -0.87148294972337081 -2.851052932490993 1:1774.6667 2:61.47809 3:35.48239 4:77.588659 5:247.28763 6:680.04097 7:1545.5477 8:2472.8763 9:1 10:0.5 11:0.15960243 
-1.7967423278592736 -1.3104227280563716 -0.90794407134746347 1:1381.7778 2:81.999699 3:30.74052 4:59.425824 5:171.38435 6:471.30697 7:1071.1522 8:1713.8435 9:0.85714286 10:0.42857143 11:0.1673243 
-0 -4.1517907904593079 -0.25242726182669373 1:1353.3333 2:64.083279 3:35.057969 4:46.328023 5:183.85114 6:505.59064 7:1149.0696 8:1838.5114 9:0.57142857 10:0.14285714 11:0.1734926 
-1.8707866711937235 -0.34801732220318593 -0 1:1386.6667 2:51.639778 3:38.213151 4:70.654087 5:189.26444 6:520.4772 7:1182.9027 8:1892.6444 9:0.85714286 10:0.57142857 11:0.2277403 
-1.768125609111693 -0.63118937365794625 -0.64739937135413639 1:1329.7778 2:64.141818 3:33.931504 4:64.017855 5:173.28304 6:476.52836 7:1083.019 8:1732.8304 9:0.71428571 10:0.57142857 11:0.4282406 
-3.1237648536792562 -1.2296659305463107 -0.51401731668744366 1:1301.7778 2:44.86468 3:23.945516 4:50.596443 5:174.77423 6:480.62913 7:1092.3389 8:1747.7423 9:0.85714286 10:0.57142857 11:0.4474271 
-0.13508529248124557 -0.67606229514804461 -0 1:1344.8889 2:77.511927 3:20.024475 4:49.384787 5:195.93496 6:538.82114 7:1224.5935 8:1959.3496 9:0.85714286 10:0.42857143 11:0.2768591 
-8 -3.6989292945494632 -0.78872000623855332 1:1294.4 2:34.372082 3:23.323808 4:46.303348 5:178.56249 6:491.04684 7:1116.0155 8:1785.6249 9:0.75 10:0.375 11:0.371245 
-4.6184535448388004 -6.7127636155973143 -0.84956008588704757 1:1364.4444 2:50.752364 3:28.353454 4:57.728428 5:179.89557 6:494.71281 7:1124.3473 8:1798.9557 9:0.85714286 10:0.42857143 11:0.3263023 
-8 -3.1714827466287425 -0.090786547411911667 1:1365.5 2:27.924004 3:18.135294 4:39.123735 5:190.1032 6:522.78381 7:1188.145 8:1901.032 9:0.66666667 10:0.16666667 11:0.38175167 
-2.349501027066057 -0.70251719689881276 -0.68138805226038668 1:1393.7778 2:150.28401 3:37.261349 4:68.218138 5:159.67508 6:439.10648 7:997.96927 8:1596.7508 9:0.85714286 10:0.42857143 11:0.438889 
-1.0227901822704057 -0.95592449078641561 -1.0247199651394698 1:1439 2:75.544689 3:68.368284 4:105.74182 5:200.77016 6:552.11793 7:1254.8135 8:2007.7016 9:0.66666667 10:0.5 11:0.46633933 
-1.6200509302776058 -2.3317835824086415 -1.6692208911830417 1:1386.6667 2:70.553368 3:32.806172 4:72.427303 5:197.19015 6:542.27291 7:1232.4384 8:1971.9015 9:1 10:0.57142857 11:0.4266497 
-0.64335608993912152 -0.39357766172498643 -0.82682625181208069 1:1575.5 2:79.105942 3:68.25117 4:123.8386 5:217.59309 6:598.381 7:1359.9568 8:2175.9309 9:0.66666667 10:0.66666667 11:0.34943156 
-0.97814115745734831 -0.71196617799651118 -1.3057400814981379 1:1608.5714 2:82.653938 3:62.819105 4:119.45208 5:234.5553 6:645.02709 7:1465.9706 8:2345.553 9:1 10:0.8 11:0.38917775 
-3.3822857295632875 -5.8845955003785084 -2.7762480301241088 1:1548.5 2:51.242073 3:40.094333 4:74.957766 5:217.96866 6:599.41382 7:1362.3041 8:2179.6866 9:0.83333333 10:0.83333333 11:0.30506344 
-1.482627226584307 -2.1907574696972074 -0.69695926050066148 1:1392 2:40.792156 3:18.856181 4:39.463063 5:185.46285 6:510.02285 7:1159.1428 8:1854.6285 9:0.83333333 10:0.33333333 11:0.037340333 
-1.5324119398433158 -3.5969754453257012 -5.5586039755865215 1:1357.3333 2:49.746022 3:22.293039 4:34.90395 5:196.93869 6:541.58141 7:1230.8668 8:1969.3869 9:0.42857143 10:0.14285714 11:0.0203581 
-4.9288517225528867 -5.2716692332417274 -4.3968738606520432 1:1411.1111 2:44.212729 3:27.499907 4:41.761226 5:192.41431 6:529.13934 7:1202.5894 8:1924.1431 9:0.71428571 10:0.14285714 11:0.0444464 
